{"layers": [[[0.0, 0.0]], [[-1.0, -1.0, -1.0, -1.0, -1.0, -1.0, -1.0, -1.0, -1.0, -1.0, -1.0, -1.0, -1.0, -1.0, -1.0, -1.0]], [[-1.0, -1.0]]], "weights": [[[4.189607540917084, -0.017074165111324945, -0.9548031966161895, -0.7046117362306974, 0.31618174581561337, 4.507097608772589, -1.3350669898230252, 0.33697111576436206, 4.13267383825019, -0.8710226524488321, 0.42637734106796477, -1.493163120710314, -1.3441982607134915, -0.6924906583976879, -3.4849387757289114, -2.2754312201782767], [-0.8121215874763886, -2.035390655095854, -0.993613169244594, 4.043663142792222, -2.3565811246375277, -1.0462969652182619, -0.6065627379688362, -2.39030162446601, -0.805239813262451, -1.1169408278226065, 2.7752723742981518, 5.429138642410294, -0.688696307587007, -1.2939305824777503, 1.3785883332404738, 0.22718733626624582]], [[5.491507429028798, -0.4754378711901062], [-4.751364630916584, -9.179685832611337], [-5.859296214698706, -5.734963390516299], [-0.21277786842999447, 5.138234625361294], [-3.7244897347802755, -8.826462411391448], [5.032201037567357, -1.5205902587739848], [-6.381377336003889, -4.780792899586176], [-3.793615528204969, -9.108139176544585], [4.833621066758153, -0.7490113474534974], [-6.40633933871911, -6.699254296781065], [1.7103922442332349, 3.990726262660235], [-3.497392314012943, 6.2273311701754235], [-8.424529699207602, -6.337090798281836], [-5.894481494989767, -7.011507641007375], [-8.434114232411314, -1.116700519281606], [-9.070980045776796, -3.731385180776424]]], "bias": 1.0}