{"layers": [[[0.0, 0.0]], [[-1.0, -1.0, -1.0, -1.0, -1.0, -1.0, -1.0, -1.0, -1.0, -1.0, -1.0, -1.0, -1.0, -1.0, -1.0, -1.0]], [[-1.0, -1.0]]], "weights": [[[4.1891032763720535, -0.01794013271904292, -0.9551821833438947, -0.7033894041362778, 0.3152697974181997, 4.506506365599944, -1.335314948897066, 0.33602745545832907, 4.132166697573598, -0.8714858462429393, 0.4271575153106603, -1.4915769341968648, -1.3445339126160734, -0.6930165270592006, -3.4847571556606773, -2.2754783949857837], [-0.8127161467663041, -2.036348516557297, -0.9941267259405628, 4.044843545041824, -2.357528514721442, -1.0470178986041654, -0.6069354091436924, -2.3912786965378316, -0.8058313032198523, -1.1175564555811355, 2.776087905388739, 5.430550204541684, -0.689202120026133, -1.2946005982630726, 1.3788274654534243, 0.22705588267438714]], [[5.490966418578753, -0.4741667798024581], [-4.751366972803711, -9.179337605218333], [-5.859285628731094, -5.734597696285028], [-0.21323770519683322, 5.13953493752624], [-3.7245001435396783, -8.826111484332344], [5.031657597804059, -1.5193121255293944], [-6.381363777006607, -4.780420580472034], [-3.793626241551725, -9.107789592711303], [4.833083963667224, -0.747747709587401], [-6.406328696916435, -6.698894192773222], [1.7099096988603102, 3.992000569142585], [-3.497847360169787, 6.22875708900561], [-8.424513601630492, -6.336728835229827], [-5.894473163957339, -7.011149194014971], [-8.43410299064492, -1.1162824116001695], [-9.07096174758842, -3.731002929940042]]], "bias": 1.0}